//Numpy array shape [1, 9, 36]
//Min -1.000000000000
//Max 0.992187500000
//Number of zeros 4

#ifndef W32_H_
#define W32_H_

model_params_t w4[324] = {0.234375, -1.000000, -0.390625, 0.992188, 0.242188, -0.132812, 0.460938, 0.453125, -0.500000, -0.101562, 0.171875, 0.992188, -0.742188, 0.992188, -0.632812, -0.992188, -0.960938, -1.000000, -0.601562, 0.046875, 0.375000, -0.398438, 0.992188, 0.218750, -0.500000, 0.843750, -0.507812, 0.546875, -0.554688, 0.320312, 0.054688, 0.437500, 0.359375, -0.554688, -0.156250, 0.945312, -1.000000, 0.070312, 0.359375, 0.578125, 0.992188, -0.695312, -0.304688, -0.187500, 0.273438, -0.148438, 0.421875, -0.101562, -0.812500, -0.398438, 0.390625, -0.367188, -0.320312, -0.218750, 0.687500, -0.437500, 0.992188, 0.992188, 0.375000, -0.328125, -0.132812, -0.210938, -0.992188, 0.609375, 0.257812, -0.992188, 0.320312, 0.015625, -0.960938, 0.843750, 0.171875, -0.757812, 0.789062, 0.343750, -0.210938, -0.460938, -0.875000, -0.375000, 0.820312, 0.570312, 0.859375, -0.312500, -0.187500, 0.328125, -1.000000, 0.156250, 0.960938, -0.218750, 0.328125, 0.179688, 0.007812, 0.414062, 0.765625, -1.000000, 0.414062, -0.359375, -0.023438, 0.109375, 0.546875, 0.804688, -0.976562, 0.710938, -0.398438, 0.914062, 0.000000, -0.679688, -0.351562, 0.898438, -0.210938, 0.351562, -0.476562, -0.093750, -0.109375, -0.117188, 0.062500, 0.250000, -0.171875, -0.015625, -0.296875, 0.132812, -0.109375, 0.273438, 0.117188, 0.070312, 0.226562, -0.257812, -0.007812, 0.171875, 0.195312, 0.171875, 0.101562, -0.203125, 0.476562, 0.179688, 0.351562, 0.101562, 0.046875, -0.898438, -0.773438, -0.468750, -0.070312, 0.023438, -0.226562, -0.773438, 0.156250, 0.242188, -0.390625, 0.375000, 0.101562, 0.218750, 0.593750, 0.265625, 0.265625, 0.164062, -0.054688, -0.078125, 0.507812, 0.187500, -0.546875, 0.492188, -0.289062, 0.085938, 0.242188, 0.335938, 0.148438, -0.289062, 0.031250, -1.000000, -0.226562, 0.031250, -1.000000, -0.281250, -0.218750, 0.578125, 0.101562, -0.125000, 0.726562, -0.164062, -0.117188, 0.250000, 0.195312, -0.171875, -0.140625, -0.179688, 0.156250, -0.468750, -0.445312, -0.828125, -0.218750, -0.671875, 0.773438, -0.531250, -0.023438, -0.125000, 0.648438, -0.093750, -0.031250, 0.015625, -0.578125, -0.718750, 0.234375, -0.187500, 0.039062, -0.203125, -0.250000, 0.460938, 0.000000, -0.343750, -0.289062, 0.273438, -0.328125, 0.265625, 0.289062, -0.015625, -0.835938, 0.515625, 0.164062, 0.117188, -0.351562, 0.226562, 0.109375, 0.843750, 0.851562, -0.375000, 0.992188, 0.242188, -0.367188, -0.328125, -0.312500, 0.007812, 0.757812, -0.085938, -0.460938, 0.234375, -0.109375, 0.859375, 0.234375, -0.085938, -0.007812, 0.335938, 0.742188, 0.062500, 0.242188, -0.101562, -0.304688, -0.554688, 0.359375, -0.562500, 0.328125, 0.085938, 0.320312, -0.093750, -0.039062, 0.085938, -0.062500, 0.132812, -0.093750, 0.523438, 0.382812, 0.265625, -0.171875, -0.351562, -0.015625, -0.117188, 0.773438, 0.156250, 0.226562, -0.125000, 0.000000, 0.023438, 0.617188, 0.117188, -0.203125, 0.132812, 0.117188, 0.148438, 0.320312, -0.015625, 0.328125, -0.296875, 0.531250, 0.078125, 0.000000, 0.078125, -0.507812, 0.570312, 0.062500, 0.031250, 0.046875, 0.039062, -0.945312, -0.320312, 0.023438, 0.460938, -0.804688, 0.054688, 0.453125, 0.351562, 0.210938, 0.468750, 0.273438, 0.031250, 0.195312, 0.078125, 0.242188, 0.015625, 0.476562, 0.304688, -0.125000, 0.132812, 0.203125, -0.015625, -0.359375, 0.062500, -0.335938, -0.148438, -0.007812, -0.140625, 0.015625, -0.375000, -0.226562, -0.281250, 0.625000, 0.312500};

#endif
