//Numpy array shape [6, 170]
//Min -1.000000000000
//Max 0.992187500000
//Number of zeros 4

#ifndef W24_H_
#define W24_H_

model_params_t w7[1020] = {0.601562, 0.117188, 0.992188, 0.054688, 0.992188, 0.031250, 0.992188, -0.898438, -0.757812, 0.687500, -0.992188, 0.562500, -0.992188, 0.218750, 0.929688, 0.273438, -0.812500, -0.007812, 0.843750, -0.992188, -0.656250, -0.070312, -0.367188, 0.765625, 0.710938, -0.414062, -0.375000, -0.773438, 0.992188, 0.109375, 0.992188, -0.031250, -0.023438, -0.750000, 0.992188, -0.203125, 0.960938, -0.093750, 0.992188, -0.039062, -1.000000, -0.726562, -0.789062, 0.992188, 0.992188, -0.679688, 0.992188, -0.031250, -0.742188, -0.875000, 0.398438, 0.046875, -1.000000, -0.992188, 0.039062, 0.179688, -0.992188, 0.992188, 0.882812, -0.992188, 0.023438, 0.218750, -0.968750, -0.234375, -0.710938, -0.781250, -0.992188, -0.781250, -0.625000, 0.992188, -0.890625, 0.203125, 0.343750, 0.609375, -0.039062, -0.617188, 0.328125, 0.023438, -0.007812, -0.585938, -1.000000, -0.765625, 0.000000, 0.992188, 0.921875, -1.000000, 0.492188, 0.000000, 0.226562, 0.765625, 0.500000, -0.203125, -0.562500, 0.625000, 0.343750, 0.773438, -0.953125, -0.648438, -0.257812, 0.851562, 0.210938, 0.882812, -0.085938, 0.156250, -0.757812, 0.640625, 0.062500, -0.992188, -0.789062, -0.960938, 0.242188, 0.984375, -1.000000, -0.460938, -0.312500, 0.125000, -0.828125, 0.992188, 0.843750, 0.492188, -0.914062, -0.445312, -0.085938, 0.796875, -0.992188, 0.234375, 0.992188, 0.664062, 0.992188, 0.937500, -0.171875, -0.679688, 0.250000, 0.687500, 0.812500, -0.812500, -0.054688, -0.039062, 0.992188, -0.992188, -0.062500, -1.000000, 0.273438, 0.859375, 0.421875, 0.132812, -1.000000, 0.281250, 0.109375, 0.046875, -0.148438, -0.421875, -0.398438, -0.992188, 0.539062, 0.320312, 0.992188, 0.609375, 0.992188, -0.968750, -0.070312, 0.484375, 0.765625, -0.835938, -1.000000, 0.992188, -0.164062, 0.156250, -0.656250, -1.000000, -1.000000, -0.562500, -0.343750, -0.554688, -0.343750, -0.460938, -1.000000, -0.703125, -0.343750, 0.765625, 0.968750, -0.039062, 0.343750, -1.000000, 0.656250, -0.148438, 0.500000, -0.007812, 0.906250, 0.515625, 0.679688, 0.617188, 0.593750, 0.328125, -0.148438, -0.312500, 0.828125, 0.960938, 0.023438, -1.000000, 0.726562, -0.851562, 0.281250, -0.343750, -0.648438, 0.648438, -0.273438, 0.015625, -0.171875, 0.960938, 0.781250, 0.195312, -0.015625, -0.687500, -1.000000, -0.460938, -0.429688, -0.796875, 0.992188, -0.250000, -0.023438, 0.906250, 0.632812, 0.781250, 0.210938, 0.328125, 0.898438, -0.156250, -0.750000, -0.015625, -0.046875, -0.562500, 0.664062, -0.343750, 0.296875, 0.335938, 0.507812, -0.570312, -0.578125, -0.312500, 0.992188, 0.773438, -0.625000, 0.218750, -0.710938, -1.000000, 0.921875, -0.796875, 0.046875, -0.515625, 0.843750, 0.593750, 0.804688, -0.453125, -0.742188, 0.117188, -0.453125, 0.437500, -0.187500, 0.335938, 0.710938, 0.453125, -0.046875, -0.265625, 0.195312, 0.179688, 0.328125, 0.968750, -1.000000, 0.242188, -0.851562, 0.335938, 0.492188, -0.992188, -0.468750, -0.992188, 0.445312, 0.617188, 0.953125, -0.601562, 0.046875, -0.007812, -0.492188, 0.421875, 0.453125, -0.882812, 0.007812, 0.109375, 0.132812, 0.859375, 0.843750, -0.968750, -0.992188, 0.140625, 0.820312, -0.156250, -0.992188, 0.242188, -0.601562, -0.007812, -0.125000, -0.445312, 0.437500, -0.203125, -0.296875, 0.234375, 0.554688, 0.406250, -1.000000, -0.984375, -0.937500, -0.765625, 0.671875, -0.179688, -0.359375, -0.046875, -0.023438, 0.101562, -0.445312, -0.085938, 0.859375, 0.625000, -0.632812, 0.960938, 0.062500, 0.085938, -0.359375, -0.648438, -1.000000, 0.476562, -0.312500, 0.992188, 0.640625, 0.320312, 0.328125, -0.546875, -0.835938, 0.976562, -0.492188, 0.648438, 0.757812, -0.992188, 0.992188, 0.585938, 0.992188, 0.992188, 0.992188, -0.437500, 0.992188, -0.984375, -0.523438, 0.992188, 0.460938, -0.390625, 0.976562, 0.140625, 0.312500, 0.671875, -0.335938, 0.226562, -0.414062, -0.390625, -0.414062, -0.070312, -0.992188, -1.000000, -0.992188, 0.320312, 0.171875, 0.804688, -0.539062, -0.125000, 0.531250, 0.976562, 0.992188, -0.320312, 0.093750, 0.765625, -0.015625, 0.070312, -0.257812, 0.992188, 0.367188, 0.132812, 0.531250, 0.976562, -1.000000, 0.117188, 0.992188, -0.992188, 0.476562, -1.000000, -0.117188, 0.265625, 0.562500, -0.031250, -0.632812, 0.484375, -0.726562, 0.992188, -0.273438, 0.476562, -0.960938, -0.398438, -0.992188, -0.476562, -0.007812, 0.773438, -0.570312, -0.898438, -0.765625, -0.984375, 0.859375, -0.414062, 0.921875, -0.890625, -0.367188, 0.992188, -0.492188, 0.093750, 0.203125, -0.007812, 0.992188, -0.007812, -0.570312, -0.148438, -1.000000, -0.734375, -1.000000, 0.867188, -0.476562, 0.781250, 0.992188, 0.476562, -0.984375, 0.835938, 0.632812, -0.695312, 0.992188, 0.507812, 0.742188, -0.671875, -0.945312, 0.351562, -0.742188, 0.992188, 0.992188, -0.320312, 0.203125, 0.992188, -0.992188, 0.375000, 0.656250, -1.000000, 0.992188, 0.210938, 0.781250, 0.523438, 0.023438, 0.234375, -0.429688, 0.828125, 0.968750, -0.039062, -0.156250, 0.437500, 0.992188, 0.671875, 0.992188, 0.726562, -0.156250, 0.062500, -0.906250, 0.992188, -0.242188, -0.187500, -0.296875, 0.640625, -0.257812, 0.992188, 0.992188, -0.335938, 0.007812, 0.343750, 0.421875, -1.000000, 0.054688, 0.273438, 0.640625, 0.460938, -0.851562, -0.593750, 0.164062, 0.039062, -0.851562, 0.250000, 0.945312, 0.101562, 0.992188, -1.000000, 0.382812, -1.000000, 0.906250, -0.109375, 0.187500, 0.992188, 0.867188, 0.578125, 0.468750, 0.960938, 0.031250, -0.054688, -0.992188, 0.992188, 0.343750, 0.031250, 0.992188, -0.335938, -1.000000, 0.859375, -0.421875, 0.937500, 0.507812, 0.187500, -0.421875, 0.585938, 0.671875, -1.000000, -0.062500, 0.695312, 0.328125, -0.992188, -0.539062, 0.632812, 0.718750, 0.203125, 0.109375, 0.015625, 0.054688, 0.328125, 0.992188, -0.257812, 0.992188, -0.992188, -0.992188, 0.218750, 0.390625, -0.585938, -0.773438, -0.460938, 0.765625, -0.054688, 0.234375, -0.242188, 0.992188, -0.992188, 0.593750, -1.000000, -0.179688, -0.382812, 0.585938, 0.554688, -0.406250, 0.500000, 0.335938, 0.367188, 0.156250, -0.046875, -0.882812, -1.000000, 0.476562, 0.203125, -0.851562, -1.000000, 0.679688, 0.929688, -0.789062, 0.992188, 0.101562, -0.640625, -0.140625, -0.382812, -0.585938, 0.992188, 0.601562, -0.531250, -0.046875, -1.000000, -1.000000, -1.000000, -0.429688, -1.000000, 0.226562, -1.000000, -0.351562, 0.585938, 0.937500, 0.734375, 0.671875, -0.632812, -1.000000, -0.007812, 0.695312, -0.328125, -0.992188, -0.984375, 0.320312, 0.445312, -0.312500, -0.523438, -0.992188, -1.000000, 0.835938, 0.992188, -1.000000, -0.468750, 0.382812, -0.671875, 0.851562, -0.164062, 0.226562, 0.195312, 0.992188, 0.992188, -0.992188, 0.781250, -1.000000, -0.828125, -0.007812, -0.218750, -0.460938, 0.359375, -0.156250, -0.054688, -0.914062, 0.492188, 0.609375, 0.312500, -0.992188, -0.742188, -0.054688, -0.484375, 0.648438, -1.000000, 0.968750, 0.148438, -0.476562, -0.617188, -0.648438, -0.992188, -0.609375, 0.992188, -0.992188, -0.992188, -0.781250, -1.000000, -0.195312, 0.992188, 0.992188, 0.250000, -0.265625, -0.437500, -0.648438, -0.195312, 0.132812, 0.984375, 0.984375, 0.992188, -0.968750, -0.046875, 0.023438, 0.828125, -0.468750, -0.992188, -0.218750, 0.812500, 0.718750, 0.992188, 0.992188, -0.851562, -0.984375, 0.304688, 0.992188, -0.968750, 0.015625, 0.507812, 0.992188, 0.992188, -0.960938, -0.523438, -0.406250, 0.125000, 0.796875, -0.992188, 0.992188, 0.257812, -0.437500, -0.960938, -0.851562, -0.992188, 0.132812, -0.757812, 0.531250, 0.890625, 0.828125, -1.000000, -0.328125, -0.992188, 0.992188, -0.523438, -0.429688, -1.000000, -0.992188, -0.226562, 0.726562, -0.796875, 0.726562, 0.328125, 0.492188, -0.429688, -0.828125, 0.234375, -0.992188, 0.992188, 0.992188, -0.312500, -0.523438, -0.242188, 0.992188, -0.054688, 0.195312, 0.992188, -0.968750, -0.695312, -0.218750, 0.601562, -0.656250, 0.851562, 0.273438, -0.820312, -1.000000, 0.992188, -0.085938, -1.000000, 0.460938, 0.257812, -0.359375, -0.148438, 0.914062, 0.906250, -0.304688, -0.765625, -1.000000, -0.140625, -0.867188, -0.312500, 0.195312, -0.960938, -0.867188, -1.000000, -0.929688, 0.179688, -0.531250, 0.257812, 0.093750, -0.781250, -0.468750, 0.492188, 0.882812, 0.460938, 0.625000, -0.867188, 0.250000, 0.914062, 0.828125, 0.375000, -0.992188, -0.367188, -0.234375, 0.242188, -0.992188, -0.343750, -0.218750, -0.992188, 0.195312, -0.148438, -0.992188, -0.742188, -0.085938, -0.539062, -0.523438, 0.437500, -0.109375, 0.554688, 0.726562, -0.679688, 0.562500, 0.203125, -0.992188, 0.328125, -0.890625, -0.343750, -1.000000, 0.281250, -0.351562, 0.406250, 0.859375, -0.210938, 0.390625, -0.039062, -0.218750, -0.750000, 0.304688, -0.632812, 0.992188, -0.992188, -1.000000, -0.843750, 0.992188, -0.664062, -0.046875, 0.398438, 0.609375, 0.250000, 0.632812, -0.406250, -0.984375, 0.937500, 0.890625, 0.625000, -0.320312, 0.796875, 0.335938, -0.992188, 0.710938, 0.445312, 0.992188, -0.968750, -0.140625, -0.812500, 0.820312, -0.632812, 0.109375, -0.843750, -0.992188, 0.804688, 0.007812, -0.164062, -0.710938, -0.453125, 0.343750, 0.601562, -1.000000, -0.054688, 0.015625, 0.382812, -1.000000, 0.726562, -0.468750, -0.226562, 0.804688, 0.554688, -0.226562, 0.421875, -0.453125, 0.343750, 0.085938, 0.273438, -0.367188, 0.304688, -0.859375, -0.125000, -0.117188, -0.718750, 0.351562, -0.867188, 0.609375, -0.054688, -1.000000, 0.570312, -0.875000, -0.218750, -0.007812, 0.398438, -0.992188, 0.992188, -0.328125, -0.421875, 0.046875, -0.906250, 0.585938, -0.859375, 0.921875, -1.000000, -1.000000, -0.289062, 0.328125, 0.578125, -0.968750, 0.414062, -0.992188, -0.593750, 0.195312, 0.500000, -1.000000, -0.937500, 0.992188, -1.000000, 0.007812, -0.234375, -0.109375, 0.125000, 0.710938, 0.000000, 0.492188, 0.429688, -0.039062, 0.710938, 0.828125, 0.710938, -0.593750, 0.234375, 0.765625, -0.593750, 0.640625, -0.296875, 0.992188, 0.476562, 0.203125, -1.000000, 0.351562, -0.078125, 0.335938, 0.007812, 0.750000, 0.867188, 0.304688, 0.843750, 0.468750, -0.242188, -0.093750, -0.148438, 0.468750, -0.976562, -0.531250, -0.687500, -0.406250, 0.554688, -1.000000, -0.460938, 0.593750, -0.265625, 0.742188, 0.296875, 0.953125, -0.234375, 0.507812, 0.281250, 0.062500, -1.000000, -0.851562, -0.953125, 0.867188, -0.406250, 0.476562, 0.984375, 0.226562, -0.578125, 0.750000, -0.320312, 0.992188, 0.867188, 0.757812, 0.148438, 0.804688, -1.000000, -1.000000, -0.992188, -1.000000, 0.601562, -1.000000, -0.835938, 0.453125, 0.023438, -0.625000, 0.992188, 0.093750, 0.765625, -0.281250, -0.640625, 0.171875, 0.765625, 0.093750, 0.257812, 0.570312, 0.250000, 0.992188, 0.992188, 0.984375, 0.000000, -0.468750, -0.226562, 0.992188, -0.070312, 0.835938, -0.812500, -0.195312, 0.093750, -1.000000, 0.937500, 0.687500, 0.992188, -0.492188, 0.789062, 0.539062, -0.992188, -0.992188, 0.523438, 0.828125, 0.062500};

#endif
